|--- feature_2 <= 2.45
|   |--- value: [0.00]
|--- feature_2 >  2.45
|   |--- feature_3 <= 1.75
|   |   |--- feature_2 <= 4.95
|   |   |   |--- value: [1.02]
|   |   |--- feature_2 >  4.95
|   |   |   |--- value: [1.67]
|   |--- feature_3 >  1.75
|   |   |--- feature_2 <= 4.85
|   |   |   |--- value: [1.67]
|   |   |--- feature_2 >  4.85
|   |   |   |--- value: [2.00]
